Language model created by QuickLM on Wed Jun 28 18:16:12 EDT 2017
Copyright (c) 1996-2010 Carnegie Mellon University and Alexander I. Rudnicky

The model is in standard ARPA format, designed by Doug Paul while he was at MITRE.

The code that was used to produce this language model is available in Open Source.
Please visit http://www.speech.cs.cmu.edu/tools/ for more information

The (fixed) discount mass is 0.5. The backoffs are computed using the ratio method.
This model based on a corpus of 8 sentences and 10 words

\data\
ngram 1=10
ngram 2=16
ngram 3=8

\1-grams:
-0.7782 </s> -0.3010
-0.7782 <s> -0.2218
-1.6812 ADD -0.2218
-1.6812 BUY -0.2218
-1.6812 CAMERA -0.2218
-1.6812 DANCE -0.2218
-1.6812 FEW -0.2218
-1.6812 HELLO -0.2218
-1.6812 HELP -0.2218
-1.6812 OPEN -0.2218

\2-grams:
-1.2041 <s> ADD 0.0000
-1.2041 <s> BUY 0.0000
-1.2041 <s> CAMERA 0.0000
-1.2041 <s> DANCE 0.0000
-1.2041 <s> FEW 0.0000
-1.2041 <s> HELLO 0.0000
-1.2041 <s> HELP 0.0000
-1.2041 <s> OPEN 0.0000
-0.3010 ADD </s> -0.3010
-0.3010 BUY </s> -0.3010
-0.3010 CAMERA </s> -0.3010
-0.3010 DANCE </s> -0.3010
-0.3010 FEW </s> -0.3010
-0.3010 HELLO </s> -0.3010
-0.3010 HELP </s> -0.3010
-0.3010 OPEN </s> -0.3010

\3-grams:
-0.3010 <s> ADD </s>
-0.3010 <s> BUY </s>
-0.3010 <s> CAMERA </s>
-0.3010 <s> DANCE </s>
-0.3010 <s> FEW </s>
-0.3010 <s> HELLO </s>
-0.3010 <s> HELP </s>
-0.3010 <s> OPEN </s>

\end\
